#pragma once

namespace VMF_MLP {
    const float W0[4][32] = {
        {0.22856457199438843f, 0.3075224737345709f, 0.293374028061353f, -0.2699906429674999f, 0.03641059717949256f, -0.33034668716064053f, -0.426975477957512f, 0.42973386282037773f, 0.1585741330672473f, 0.34333401116650514f, -0.15744933439020023f, 0.16999336984398955f, 0.21010991722309696f, -0.2578760178007928f, -0.5248921053806901f, 0.10519029123388406f, -0.11512092302946961f, 8.56584224e-316f, -0.31005765344302605f, -0.11497057271223694f, -0.01629830559913705f, -0.1053500355223096f, -0.1724429682112219f, -0.23446249724478083f, 0.09661309217199616f, 0.6118588480779514f, -0.3736679613207848f, -4.16845037e-315f, 0.1336174397835622f, -0.42588461964201757f, -0.03042681557163067f, -0.10206089727742085f},
        {-0.17991564965921417f, 0.2890503304570577f, 0.2414547912667378f, 0.36475277845517634f, -0.18410029144224252f, -0.24630854480189643f, 0.1269924453434181f, 0.0009397003494101242f, -0.10487255592755293f, -0.0703531862896133f, -0.28076320139033434f, 0.27443341188713516f, -0.11366376484227286f, -0.020932655678709097f, -0.10258177889351398f, -0.023067246657321242f, 0.13286749774037762f, 3.59526936e-316f, 0.47995251784106574f, 0.37428806340327414f, 0.4911359741835884f, 0.4014344368335986f, -0.06020250928401976f, 0.30073592507867714f, -0.3158463579871431f, -0.04192507698193191f, -0.1607638113206738f, -1.77057951e-315f, -0.15778185271349973f, -0.026933704344886643f, 0.2627022329055943f, -0.08602652038251833f},
        {-0.14687385566514588f, 0.07338715790046356f, -0.2951318550116735f, 0.3183298781091311f, -0.18818855749314795f, 0.38250351339812816f, 0.1412268676559245f, -0.2858301725152237f, -0.22052102442543406f, 0.17041184836457426f, 0.030990536203576998f, 0.08907104229507068f, 0.2477563267434831f, -0.298811473602521f, -0.06257307410172164f, -0.044351713205907035f, 0.223312195806175f, 4.9824297e-317f, 0.0809176327934474f, -0.40611595527163397f, -0.014080756212504209f, -0.08853060067899651f, 0.03672246107491011f, 0.2854944584433766f, 0.3619871135599307f, 0.06943471035230804f, -0.20093842637268314f, 2.42994392e-315f, 0.15776799517486959f, 0.14244769198721133f, 0.3949429417319789f, 0.02310104050374069f},
        {-0.08610497487506028f, -0.06976599840946558f, -0.08199068424078484f, -0.06631843614884236f, -0.17027261269297378f, 0.0902907648681625f, -0.06340137421431448f, -0.02613890411616232f, 0.1372563709667154f, -0.023983518190988602f, -0.04361048314304092f, 0.12440404007865735f, -0.03766630738891519f, -0.05262549468042845f, -0.03605485262949071f, -0.1391315904329837f, 0.09490611676626014f, -3.57313764e-316f, 0.017220219832789072f, 0.031639978826642365f, 0.05269794962618363f, -0.07008181681143699f, 0.10668074795891432f, 1.241043422304787e-05f, 0.07294568858141391f, 0.0730833807709051f, -0.03172322370688568f, -4.830969e-316f, -0.07262731661527226f, 0.011427532604526227f, 0.07314569726222185f, 0.19622400494058634f},
    };
    const float B0[32] = {-0.4464149710802911f, -0.02036911264086444f, -0.09201950355442692f, -0.22118778899098576f, -0.17096197692506243f, -0.04932773416125083f, 0.3447337637685114f, -0.21729984130468763f, 0.10762701337265942f, -0.025690490863011117f, -0.10845286780387167f, 0.28821629482738625f, 0.16317231176325125f, -0.0578560557577235f, 0.34973225195280144f, -0.12742080432699296f, -0.19643252314587756f, -0.28461558258739206f, -0.06083525094418483f, 0.04171834840463183f, -0.4684030017637053f, -0.27129631580570374f, 0.14279233787318396f, -0.3514449288503816f, -0.19212667617640897f, -0.3334070843795224f, 0.5649097833739357f, -0.3323399097068246f, -0.0021213343137891877f, 0.3727870237401177f, -0.171470103713738f, -0.00017434941532684016f};

    const float W1[32][32] = {
        {-1.02210575e-315f, -0.059143793749002534f, -0.0008841612226680031f, 4.362209104e-315f, -0.09468999066898062f, 0.006936397707078021f, 0.00043409075122036633f, -0.06357426296705866f, -1.80907516e-315f, 0.08880255203607239f, 2.97207382e-315f, 0.019836201134269843f, -0.012158443770244994f, -0.10686243563699388f, 0.0038069151210659152f, 0.05513178108815254f, -0.018477484150448878f, 2.65660545e-316f, 1.527287226e-315f, 0.04828300491623485f, -9.2566812e-316f, 0.05823845333310624f, 0.02219837015235946f, 2.58397478e-315f, 1.06834086e-315f, -0.004705397575581969f, 0.11913808390009482f, -0.06975260982710743f, -0.006492947451703473f, 0.0050781061516008506f, -0.015498916271234387f, -0.03494942471241932f},
        {0.23765312887259035f, 0.078676329634379f, 0.055166469644231955f, -8.20263936e-316f, 0.194415083303819f, 0.06907275625588466f, 0.15650306784358473f, 0.09048436447701794f, 0.028294489545171064f, -0.20101007066589444f, -0.1516728629419106f, 0.09125787850098778f, -0.0755554138835452f, -0.2113920676171466f, -0.018182216591157086f, 0.07526230713054093f, -0.17218239104723698f, -2.18865335e-316f, 2.917785244e-315f, 0.04920533881289512f, 0.03264940999386821f, -0.02949080286029403f, 0.001556226095852458f, 0.10127251611292389f, 0.04867252251658598f, 0.018605454004802197f, -0.1378569623181709f, 0.1916589254084222f, 0.0924963966402645f, -0.04545378607556539f, -0.027002236424148018f, -0.005541365962729139f},
        {-0.06633272095345016f, 0.05104736517589533f, 0.11803526206665504f, 1.03137107e-315f, 0.17410070611768844f, -0.005991776558530503f, 0.07011609543703085f, 0.0452867602588603f, -0.0038642403216886264f, 0.042362195542751065f, -0.000817396583029812f, 0.10271539170783708f, -0.05899369030975166f, -0.15513354299657986f, -0.10055342791348502f, -0.08086198927378425f, -0.09542745354766345f, -4.15591855e-316f, -1.77810485e-315f, -0.04966695765261027f, -0.20989865499223054f, 0.07093853283386338f, 0.07644501606247821f, 0.11889579165441401f, -0.04257915845771301f, 0.08893259836425593f, -0.046422527760008145f, 0.15345661580179684f, 0.009295313068046152f, -0.10244044317726808f, 0.010035879443962484f, 0.06900720401831117f},
        {0.019079209395017f, -0.02325000663079857f, -0.09552618362228596f, 4.177504036e-315f, 0.013463679310738535f, -0.03452763267240676f, -0.09064684984028729f, -0.058678431352339834f, 0.20070283959335838f, 0.29901691565811556f, 0.0805779981301226f, 0.020356613128001168f, -0.010727045546107603f, -0.038173264765489844f, -0.03118835727924428f, 0.11191938267192168f, 0.1483007068342746f, -1.865094394e-315f, 2.12137417e-315f, 0.10695243526936822f, 0.12846628014950137f, -0.12197780477142776f, -0.12566217699213791f, 0.021534478498087962f, 0.22987236951058124f, -0.07156798363250258f, 0.06233519879269645f, -0.03851745942825733f, 0.08359483637475494f, -0.046285615227450796f, 0.04703485192570533f, 0.06797331878966542f},
        {-1.35085222e-315f, -0.0882211817550798f, -0.0989488538323701f, -1.4489004e-315f, -0.1017830671322688f, -0.03056064098606837f, 0.011364262199985748f, -0.09003590393846725f, 1.72993949e-315f, -0.01144496332850783f, 0.010397986191652695f, 0.021889076177868082f, 0.0203764642294248f, -0.15006379012525176f, -0.08602636800606747f, -0.0027641095260659927f, -0.12511738384324325f, -1.48675137e-315f, -7.1895098e-316f, 0.00662699671880335f, 0.001345895523573027f, 0.02216917229880401f, -0.06163522254267805f, -0.014097917224175601f, 1.92361627e-315f, -0.027653628254997648f, 0.002303368034694569f, -0.122108423812236f, -0.021004388589012747f, 0.019623895889773903f, -0.07602733870643466f, -0.007485867292834918f},
        {-0.22761875193926343f, -0.13519880640448456f, 0.11118291922394927f, 7.53391153e-316f, 0.1671521169877094f, -0.0626386330676788f, -0.06677971344769994f, -0.05013000866614676f, 0.11393247142283018f, 0.0783298869420721f, 0.05560987243194441f, 0.011100788691891274f, -0.07539124410965255f, -0.06472398904446723f, 0.05941060312997522f, -0.03634336152401472f, -0.0669876994842474f, 2.159826143e-315f, -1.61958269e-315f, -0.10814070242226168f, -0.10572853273852288f, -0.07711904955889393f, -0.022007150059193504f, 0.18967836534199617f, -0.2111668248039382f, 0.06515709480726217f, 0.01629462194979291f, 0.12378620102461542f, -0.07496595875884575f, 0.0552035973421718f, -0.04380138744072795f, 0.1126198357684773f},
        {0.1463884363402967f, -0.21264969437133813f, -0.1398787440925896f, -1.70137956e-315f, -0.2223987279276863f, 0.09126515623196857f, 0.04805947908266457f, -0.07979561303847933f, 0.029652268952340025f, 0.13180402535071548f, 0.2040080340977844f, 0.002228990966293838f, -0.07856540927037829f, -0.02246513177511003f, 0.08694219772335546f, 0.2241075160253748f, 0.01065965986316481f, -5.80205245e-316f, 3.046161863e-315f, 0.01630851485761626f, -0.053479922324625145f, 0.07894794434678035f, -0.04556404801066332f, 0.05632523660032733f, 0.24750875916603626f, -0.07672982807881383f, 0.20192079692442927f, -0.07337606299442877f, -0.016179284752406438f, 0.02535977360809217f, -0.0205524158633989f, 0.020612248497676053f},
        {-0.01562942118374159f, -0.067249495773723f, -0.10325103286785785f, -6.94117e-318f, -0.08288197847304858f, -0.009550091616781489f, -0.010503661675494434f, -0.07767541422770889f, 1.339646983e-315f, 0.2858762049336655f, 1.4484403241403787e-16f, 0.06470734906890108f, -0.02750968057500001f, -0.04021336261431605f, -0.03299441907153742f, 0.25507801823862863f, 0.1489836430179192f, -2.7489932e-316f, -2.55324345e-315f, 0.054356683143699173f, -0.007965170579678525f, 0.07790167754547733f, -0.0587297745655267f, -0.09099800599543918f, 0.13693568204053425f, -0.0019438612735612466f, 0.23967963266570305f, 0.06675498206153331f, 0.03686776620717094f, -0.061811316520863614f, 0.008425883873064362f, -0.07320011695323668f},
        {-0.06295436420775685f, -0.15991672648425853f, -0.08488315035917494f, -1.18542328e-315f, -0.004729971099720211f, 0.010110642046583915f, -0.013034100382188878f, -0.01427125927234558f, -0.06103883316605615f, 0.03959913892496329f, 0.029430833642457545f, 0.004378402374142284f, 0.010496745053354241f, -0.17692045725370076f, -0.023695097902538764f, 0.08464394402895525f, 0.059371263870867656f, 5.5783095e-316f, 1.38243727e-315f, 0.13106546682926706f, 0.016619715800566218f, 0.06745375119949783f, -0.0386596199586631f, -0.15845002505347236f, -0.15422738035583858f, 0.04935847394216906f, -0.0380513008414807f, -0.10854317055677491f, 0.15944198369073664f, 0.05025554477967673f, 0.13650371635269065f, 0.09321976315765275f},
        {-0.1908109903093801f, -0.11947546516647978f, -0.03069439204920746f, 1.35574349e-315f, 0.014816076909724227f, 0.08335758349052574f, 0.0558283381351151f, -0.07962461605264476f, 0.0077439192557163415f, 0.012417788313064575f, -0.09159511476325577f, -0.02241181724359649f, -0.014983419834485777f, -0.03665803738252136f, 0.06681983782652937f, 0.10057822157249927f, 0.048959389401763816f, 1.25882723e-315f, 4.785286454e-315f, 0.15502983438699192f, -0.14541489575626457f, 0.17746170364417257f, -0.18031075721621365f, 0.0538343959285133f, -0.18389172626975436f, 0.09488846872556983f, -0.045507968205088685f, 0.17574415988745534f, 0.030576573395247223f, 0.029613573688489464f, 0.05143026606003369f, 0.05658773719842777f},
        {4.1937615822459563e-07f, -0.04357536753680323f, 0.010589052116560825f, -2.22452627e-315f, -0.04520572389467629f, -0.05265424895198504f, -0.01960602995383568f, -0.03999828703873709f, 6.08378405e-316f, 0.0734671236394811f, -0.0696419223037693f, -0.007945380658438021f, -0.017078882514055135f, -0.11465637294828797f, -0.08185983233523977f, -0.02508977141161355f, 0.10679446687504882f, 4.0290411e-316f, -2.80798934e-316f, -0.028472232449832314f, -0.0025201483406354632f, -0.017124060301914493f, -0.015615171617410885f, -0.010401987006634524f, 1.4810934e-315f, -0.06722985881678818f, -0.07117812586624503f, -0.09340366615710319f, -0.0004213373213800364f, 0.0014747203391586874f, -0.0759160704112669f, -0.07861161331095805f},
        {0.24534002139171093f, 0.09010739603509592f, -0.17594033962263736f, 3.4546866e-316f, -0.019350187861726216f, -0.024924684080640067f, 0.20220647691196095f, -0.1034320505667453f, 0.018047121770918023f, -0.06600666834876796f, 0.0130625672962116f, 0.022568698703891443f, 0.05757671879533386f, -0.09257028472730813f, -0.07160777378965749f, -0.08211256531469566f, -0.220757725965019f, 4.7547188e-316f, 2.89788064e-315f, 0.2325674931165494f, 0.24150794526772304f, 0.06870211325341416f, 0.10766501736881172f, 0.1138929660394738f, 0.20205492103627715f, -0.14712013460230963f, -0.033687819699195445f, -0.10622608329391085f, 0.16987821477229026f, 0.09567484613813751f, -0.14044016144773858f, 0.07304421769913659f},
        {0.06860343069113756f, -0.09551323107999547f, -0.09053243213596447f, 7.8170041e-316f, 0.08033014674096764f, 0.0701457394692383f, 0.020092417656749417f, 0.10726402233622485f, -0.022238940454557692f, 0.016215740988541023f, 0.006172507073124343f, -0.05929578702650759f, -0.0663529319034174f, -0.2568071067741876f, 0.15654871943260695f, 0.0876105650030106f, 0.03263773135306763f, 7.474806e-316f, -3.202820993e-315f, -0.0972191320009226f, -0.09951019271040124f, 0.05904538322748126f, -0.09250397501653042f, -0.0077852243987737236f, 0.14985682053910296f, -0.07390667880746464f, -0.09519517072192855f, 0.14326350690068573f, -0.10458797357228297f, 0.028581408940535888f, 0.07350062211696227f, 0.041330643978417056f},
        {-0.006561394040210996f, -0.07696050632672172f, 0.025454927159058286f, 1.06881573e-315f, -0.019020917660433175f, 0.001498804136190632f, -0.024137687056184375f, -0.010143279253039489f, -1.118707763e-315f, 0.005728966261763525f, -0.008345961572777956f, -0.06093141962727675f, 0.01219298821296247f, -0.1972711466535275f, 0.003356747042510887f, 0.009729940231600741f, -0.03598233448836631f, 1.264699794e-315f, -2.101462514e-315f, 0.1250415307595218f, 0.008424938661959164f, 0.010834170011672747f, -0.003298287981441029f, -0.018494873263643442f, -0.008915776257672807f, 0.0154845719112431f, -0.038381624640994295f, -0.07817767924492759f, -0.13144995500051565f, 0.17799142881466334f, -0.096120314862386f, -0.03659141892893092f},
        {-0.17643335564927243f, -0.008284996484096875f, 0.06717980035956041f, 5.75412265e-316f, 0.15605674846590142f, -0.08326050223634268f, 0.0815023411747949f, -0.12361840893750695f, 0.05241042239754558f, -0.18339847589498975f, 0.14219840028286215f, -0.044119815457610456f, -0.03532938176623603f, -0.152530705802606f, -0.026465298288439364f, 0.005203342781429166f, 0.040180358830858104f, -4.61996675e-316f, -1.786091054e-315f, 0.008949539641201177f, -0.0673198320979621f, -0.0839460286327351f, -0.025111323562409898f, 0.008115181332651558f, -0.07047094760651872f, 0.05446446895310443f, 0.17594103407447828f, 0.23075704108538755f, 0.1251515184462642f, 0.0414959983670266f, -0.1732553950703422f, 0.09281781801724003f},
        {-0.05600967866104622f, 0.006840427649838649f, -0.005542373567475325f, -1.05092368e-315f, 0.005736945463597818f, -0.0057207745354509966f, -0.021058187961659154f, 0.00919627718606093f, -0.0020556416192315393f, 0.04469675077644149f, 0.007904103156258202f, 0.0653099597270708f, -0.02901278045082154f, -0.0024831656154192506f, -0.006519697865734259f, -0.053488949519831804f, -0.025505733915950835f, 3.19660798e-315f, -2.690227876e-315f, -0.030077433424268888f, -0.03091515428752789f, -0.006336057102409021f, -0.0297421637416321f, -0.012823267628427004f, 0.029616698246166234f, 0.006151145321360654f, 0.11422323486773334f, 0.026742897312658664f, -0.014978227978295622f, -0.07910260669063318f, -0.032140082272814854f, -0.014723457883122184f},
        {-0.04798335525891698f, -0.024412348277013256f, -0.005905888053205346f, -5.80619653e-316f, -0.002909820105262041f, -0.02302641376333881f, 0.02650783923508392f, -0.019588805816880987f, 0.10187417060033636f, 0.04113814572389881f, 0.017101615003904655f, 0.008420118726349582f, 0.020519841419002042f, -0.05037445030877258f, -0.036541723836633684f, 0.02141312213787887f, 0.03380300814646568f, -2.923022517e-315f, -4.464249825e-315f, -0.022686455779803157f, 0.08641903647198104f, -0.10269503075180361f, -0.16249128375930355f, 0.040095647375608216f, 0.02352248182061899f, -0.05986604407075506f, 0.08818022139414311f, 0.1905289243326804f, -0.04518679443554822f, 0.03574879875617297f, -0.029741825448244094f, -0.060512719020890074f},
        {-1.653613883e-315f, 8.6956063e-316f, 2.140414106e-315f, 4.65502332e-315f, -5.657073e-316f, 8.18306705e-316f, 6.0675312e-316f, 3.32347032e-315f, 1.62501151e-315f, 1.14997139e-315f, 7.35773894e-316f, -2.599303325e-315f, 6.67623724e-316f, 4.076588227e-315f, -4.279309053e-315f, 2.98927709e-315f, -1.06584787e-315f, -4.7311794e-316f, -9.02286995e-316f, -3.5407803e-316f, 1.486737065e-315f, 3.347258837e-315f, 4.79447335e-316f, -4.091915823e-315f, -2.937247744e-315f, -9.6746566e-316f, -1.27879287e-315f, -6.28027613e-316f, -1.3495689e-315f, 3.3353726e-316f, -2.85132389e-315f, -3.022149986e-315f},
        {-0.0027811946170247246f, 0.11930555264872057f, 0.034779574420660174f, 6.85638424e-316f, -0.11497763061450517f, 0.01946899425452125f, 0.18024230036401426f, -0.02949597226031216f, 0.0571991934375939f, 0.26508223285583854f, -0.20154511352151f, -0.014732248740521738f, 0.03966651140580243f, 0.09123339539758608f, -0.17955868177159182f, 0.29094759243743146f, 0.2025015668995512f, -1.224029733e-315f, -2.30478155e-315f, 0.06033562763983042f, -0.00593078020296175f, -0.10915011782508145f, 0.05642116002118965f, 0.08683513942865792f, 0.04866807972281703f, -0.08631260844010671f, 0.15832173856759832f, -0.04953503236368032f, 0.08413347040736945f, 0.07809203877915871f, -0.04619304208624271f, 0.024543829169895635f},
        {-0.1732405144417109f, -0.024453504929054504f, 0.16904287724020828f, -1.03017418e-315f, -0.09497192851961354f, -0.005720564989254089f, 0.1149858971557072f, -0.25483900585612507f, 0.08074099858528f, -0.03773745361705068f, -0.013946591271476875f, 0.016373278119567392f, -0.004073457179814756f, 0.07396202481269344f, -0.02621974901057095f, 0.03222218095831373f, -0.10271295207704872f, -2.8836706e-316f, -4.349189e-317f, -0.0415665115279862f, -0.02057274382716896f, 0.03765618975602524f, -0.12577140423371785f, 0.1715441605863794f, -0.12630714134178567f, 0.14061902347028743f, -0.05852207580885642f, -0.07350301996338805f, 0.24001328460524257f, -0.02799049223402406f, 0.047645041275468446f, 0.2673084342897796f},
        {-0.045127869759715014f, 0.108924845470267f, 0.03373631857206159f, -8.41823316e-316f, 0.12919394718290056f, -0.0015143067933103016f, 0.1290037083878628f, -0.02200767722982133f, 0.1290605168792435f, 0.023501860210235943f, -1.04738579e-315f, -0.025635855097913305f, -0.022732871144957766f, 0.046341151044165585f, 8.864936363824466e-15f, 0.04048184456114743f, -0.006537266568711592f, -2.020892027e-315f, -3.861004995e-315f, 0.0030398599289419596f, -0.1305405979574044f, 0.013705278635855814f, -0.12499547565084307f, 0.09763798338034474f, -0.043976629686021555f, 0.0820448068956977f, 0.12064475196113986f, 0.13140151173213027f, 0.10689038467847929f, -0.008223625790002053f, -0.035136929838455955f, 0.07921770031697423f},
        {-0.030567835695934204f, -0.06638097742678603f, -0.04599787372931379f, 2.889697533e-315f, -0.19953971601472129f, 0.04256054493232172f, 0.0420110666948363f, -0.056804459178860914f, -0.019578564364162512f, -0.031210686650797098f, 3.609233035e-315f, -0.03403044230984091f, -0.021024518463140185f, 0.06936529660246595f, -0.020452137555592803f, 0.22018941638496672f, -0.10338881497220066f, 8.3345893e-316f, -1.05681638e-315f, -0.0261000885287509f, 0.00781133560412006f, 0.04510694489932835f, 0.0802826724749866f, 0.1074027602952086f, 0.06444270014545893f, -0.04832160749641066f, -0.09678665825335793f, -0.18519722572339492f, -0.022556182329199925f, 0.0925317829980283f, -0.04109383140582052f, -0.07167476701237209f},
        {-0.04762150033120982f, -0.15632483436474812f, 0.0545153604454963f, -9.61838284e-316f, 0.02401995721449373f, -0.029608874506466536f, -0.04773571832271465f, 0.055049465657955626f, 0.02248045638684332f, -0.007697646540884562f, 0.020482370510623352f, 0.03907051264487194f, -0.006343306009741959f, 0.05025839676527799f, 0.03974253784582048f, -0.044198425103651656f, -0.08194158081010715f, 5.495251e-316f, 4.95429267e-316f, -0.06929237253516055f, 0.08440684270907418f, -0.07206966568492296f, 0.05555796393679691f, -0.006403763185985705f, 0.04638042795791732f, -0.021942395330430912f, 0.04947251181342758f, -0.03154453727963043f, -0.0607903412292907f, 0.044595573200972044f, 0.036123008361439855f, 0.03730593376566804f},
        {0.10833263281289837f, 0.01673871682821177f, 3.86011814e-316f, 1.36851714e-315f, 0.005332540784158366f, -0.043213958211702014f, -0.08889111516603775f, 0.004552897084989709f, 0.16463711663732775f, 0.18880539786148526f, -0.04541857029583983f, -0.007613236847433632f, 0.015702721396205092f, -0.15576543123558126f, -0.013682384232381928f, 0.11049740400751794f, 0.13086951057941457f, 4.1056583e-317f, -8.30840434e-316f, 0.03431850525638971f, 0.08923665961527646f, -0.0620167830129695f, -0.14311201243736887f, -0.0639278821799787f, 0.206515582656345f, -0.07177891614692053f, -0.010926584152689763f, -0.018713933299394764f, -0.08985369281352952f, 0.029441549575104312f, -0.01818759634481395f, -0.060689408406443865f},
        {0.06310653725930108f, -0.10524091775824293f, 0.04443808613477015f, -3.8266632e-315f, 0.14895875525361046f, -0.06446448295421446f, 0.11483143076804703f, -0.16307882928184414f, -0.0649513173484295f, -0.101959299072349f, -0.10216580736827352f, -0.022056739405935614f, -0.036459093501137886f, -0.073622709393069f, 0.014589364393011405f, 0.012609742037010064f, -0.0936944878766922f, 1.47859496e-315f, -3.173554506e-315f, -0.0922861023427718f, -0.07053934861328921f, -0.002805629486375773f, -0.0673278632892825f, 0.22831224781465045f, -0.05878540852174659f, 0.01706984332730946f, -0.07883053878977822f, -0.04539232670054949f, 0.019608062537886953f, -0.14984413890610163f, 0.13470947858351268f, 0.1342571336017044f},
        {-0.1615366307818182f, -0.07604064112863992f, -0.0961909368729321f, 2.983643626e-315f, 0.05431846077090133f, -0.003289942285861438f, 0.13029145218984584f, -0.05285048498449778f, 0.052867604008454576f, 0.10657422501255567f, 6.253519e-316f, 0.006662911161085828f, 0.07502281121356928f, -0.25427275512924435f, -0.049223121343254676f, -0.03221869472072534f, 0.046022310297918534f, -2.764403246e-315f, 1.083994e-315f, 0.15985454852170902f, -0.05912279772298038f, 0.12136879202157268f, 0.02606275180286706f, 0.010722173102248017f, -0.2598799901124998f, -0.007210718712277332f, 0.4230957103605957f, 0.22716240884977595f, 0.13134096803940234f, -0.02385625615869218f, 0.08684080635598347f, 0.17075896784870478f},
        {-0.03289800354277826f, 0.020772003581595803f, 0.02458517001330597f, 3.468340947e-315f, 0.27677836346524526f, -0.0019822850716785774f, 0.14062809112162594f, 0.07396684264571296f, -0.07486184674208343f, -0.19363690567808917f, 0.07986677505176637f, -0.03853443053921618f, -0.083286622837655f, 0.2332151357545413f, -0.012903922034540091f, 0.04010340438661655f, -0.22231693664334357f, -2.68867767e-315f, 7.6168709e-316f, 0.05398301156002223f, -0.002817764759267869f, -0.2320320756011145f, -0.014430169022247653f, -0.03755514420535813f, -0.17138203166720178f, 0.1185284119558911f, 0.009214752285399083f, -0.08228153247833232f, 0.1101981510307166f, -0.24377400446334394f, 0.1635086860351207f, 0.1692645859011989f},
        {6.112805e-317f, -7.63164913e-316f, 2.46241756e-315f, -1.04850101e-315f, -1.274220197e-315f, 4.7680535e-316f, 3.4388624e-317f, 3.73133855e-315f, 4.73390337e-316f, -3.93039666e-316f, -2.433270845e-315f, 7.6973156e-316f, -1.655177734e-315f, 1.321551098e-315f, 2.55722143e-316f, -2.75184007e-315f, 2.99105523e-315f, -1.794566825e-315f, -3.825987e-316f, 1.719261354e-315f, 5.7869705e-316f, 3.312087825e-315f, -1.85589633e-316f, 1.5117164e-316f, 5.2607507e-316f, -7.3073934e-317f, 3.74295077e-316f, -2.709476016e-315f, -1.3206218e-316f, 6.9312979e-316f, 3.2170424e-316f, -2.954105704e-315f},
        {-0.03892317275007015f, -0.014862237246451408f, 0.03422968681775194f, -2.847327303e-315f, 0.09484997810320119f, 0.0423792620766423f, 0.12081636202166059f, -0.09986177327351332f, 0.09876907216609583f, 0.019329616539993124f, -0.005954023475208668f, 0.04242123725208902f, -0.05817240421686051f, 0.011364990030326564f, 0.12053833147485463f, -0.00863581296062504f, -0.05391156231403458f, 8.4961635e-316f, -1.702066644e-315f, -0.0023550155570347406f, -0.027429814573907987f, 0.039875583939432906f, -0.15886694471798468f, 0.04136994794328668f, -0.0027418637494085922f, 0.043123484483673966f, 0.03653568987773944f, 0.04376358705783695f, 0.11653879925038514f, -0.1420278059591729f, 0.03226203979414044f, 0.049121280817924995f},
        {0.23629596783033807f, -0.18322898801047527f, -0.10522922166592784f, 4.7458651e-316f, -0.05245601156277978f, -0.11458332462439169f, -0.13552166448560413f, -0.0761183699175286f, 0.011668655944143647f, 0.010957121245292868f, 0.16970450507922033f, -0.06235035801607428f, -0.06283172615037132f, 0.2751583628345271f, 0.14096767972720584f, 0.23669390742666938f, 0.24918333821630745f, 8.42320746e-316f, -1.87856403e-315f, 0.04280299894948494f, 0.12494915368416973f, -0.09761574149576933f, -0.002995590031693796f, -0.020044533763882582f, -0.011213127700135782f, 0.021939563795227393f, 0.12873678120301202f, -0.006211529513659253f, -0.024458429321374486f, 0.073700541081664f, -0.17116046635967713f, -0.06987383020454074f},
        {0.10218983383959727f, -0.10496339702611568f, -0.07026392058348126f, 4.73078437e-315f, 0.11128418090199528f, -0.015211976429785305f, -0.06020812282823515f, -0.13443804964849262f, 0.13456431129576538f, 0.012151690384093588f, 0.07428615482361708f, -0.019097232836132273f, -0.0035293553362767643f, -0.11303486361071946f, 0.032967462814709324f, 0.09555486006866455f, 0.17175589222425727f, 2.406807583e-315f, 2.183829433e-315f, 0.2383281719152965f, 0.10248427979870933f, -0.030112187936718354f, -0.18903053001148162f, 0.10757202118296055f, 0.1509134753664349f, -0.08394209911766878f, -0.1369018885367049f, 0.1201084826763507f, 0.12014888686727637f, -0.014070224538628847f, 0.15384396544951873f, 0.02351326450667851f},
        {-0.008664495686921533f, -0.16371261039980117f, 0.039764472668730844f, -9.5037389e-316f, -0.07190764353903137f, 0.03484384976995902f, -0.024778264624442346f, -0.0031930018388994356f, 0.013365249688803437f, 0.004853479387538223f, 0.04606641855849353f, 0.07777124061590904f, -0.021170181327464777f, 0.1037783975836924f, 0.03346895208896447f, -0.007653776919360411f, -0.06432985047202018f, 2.87784612e-315f, 3.98155453e-315f, -0.00877361647229097f, 0.00392969120395106f, -0.02697287372032011f, 0.0365230466874195f, 0.01344393078928583f, 0.06988692617616182f, -0.016378162635463125f, 0.01803983898709596f, -0.0635129252701041f, 0.002478985581712714f, -0.002467450730520481f, 0.08931562935717409f, 0.023871181185086562f},
    };
    const float B1[32] = {-0.14113628058806782f, 0.20435141713030544f, 0.09158647659018926f, -0.26464467273322356f, -0.0784776657665525f, 0.0046565335845650075f, -0.22858576737677402f, 0.13107766332618875f, -0.18412370495592983f, 0.009008356240283065f, -0.23237906045580256f, 0.04283689067324731f, 0.10309559468744328f, 0.3584148512302283f, -0.044649117785651345f, -0.13492268150506292f, 0.10408722384251795f, -0.2966911325846063f, -0.2926383647118438f, -0.13142254267166673f, -0.005134569439168261f, 0.12511713832482965f, 0.15279788179594528f, -0.20257066636180796f, -0.10931789186623138f, 0.3144890265138875f, -0.15726966422479333f, -0.07286851208342547f, -0.25587683948884343f, 0.12733264172216077f, 0.07983361429905164f, -0.16013976314439715f};

    const float W2[32][32] = {
        {4.26516255e-315f, 0.0009728614081269467f, 0.1781711575594704f, 3.463553254e-315f, 0.09832795161892233f, -0.1780863881928088f, 0.014784674402354587f, -0.07012296923221122f, -4.301237777e-315f, 6.7531754e-316f, 0.12018978336740271f, -0.19894453135521908f, -0.051449871896975016f, -0.10357035546294636f, 0.2379256246977529f, -1.32719667e-315f, 1.19863448e-315f, -0.12112341078165455f, 1.432596373e-315f, -0.05448377194318321f, 0.05619852689165052f, -2.99514413e-316f, -0.05973271647806411f, -0.004871849309310343f, -0.05324531177101275f, -0.13061112370259081f, -0.06660635168428569f, 0.01891101340535524f, 0.03846528286799192f, 1.47162434e-315f, -4.05587806e-315f, 1.36655616e-315f},
        {4.5090534e-316f, 0.010020091409965163f, 0.08211012090835536f, 2.026000587e-315f, -0.05100285278799178f, -0.1413519769552536f, -0.08522647771893622f, -0.0454954855362997f, 3.0697954e-316f, -1.114434663e-315f, -0.05379493214181011f, 0.035868753607533714f, -0.08337244899044309f, -0.027402344024998766f, -0.23961918368858592f, 2.19146278e-315f, -2.27921866e-315f, -0.0948658906591526f, 1.394563383e-315f, -0.038519698173960636f, -0.0020544658164688727f, 5.24725665e-316f, 0.050110915808545896f, 0.06037282697287161f, 0.03535450477388043f, -0.08530808684775194f, 0.017926982882780593f, 0.01229535899964112f, -0.09534485607399197f, 4.025349993e-315f, -1.35998308e-315f, 5.0269742e-316f},
        {5.72633136e-316f, -0.008511047366149483f, 0.08277982375822925f, -3.4237624e-316f, 0.008098883306819123f, 0.18644373426081595f, -0.009259608647791927f, -0.04640431225692073f, -3.6500233e-316f, 3.12625823e-316f, -0.08368234666135035f, -0.03947374211609356f, -0.012296049117950581f, -0.05123910261077877f, 0.19727660262092986f, 2.0364311e-315f, 2.6734463e-316f, -0.02409175218207306f, 2.54880482e-315f, -0.05409270348295063f, -0.039634684899154296f, -8.61123056e-316f, -0.03558881542035492f, 0.015762228015391552f, -0.01980469333729844f, -0.12775180851093873f, 0.005273671435718073f, 0.052739386800093324f, -0.013774370040825152f, -3.200880447e-315f, 5.019145e-316f, -2.61646468e-315f},
        {3.714230873e-315f, 1.46574565e-315f, -4.7642897e-315f, -3.61249444e-315f, 7.01933673e-316f, 3.45962888e-315f, 9.29002953e-316f, -1.967382336e-315f, 8.9664561e-316f, 2.56500245e-315f, 2.856726324e-315f, 1.66236427e-315f, -4.850072e-316f, 2.83149362e-315f, -1.22738416e-315f, -2.74349848e-315f, 5.26794407e-316f, 2.03928456e-316f, -1.65325549e-315f, -9.396968e-316f, -1.48316017e-315f, -2.649844185e-315f, -1.89935835e-316f, 6.4699145e-316f, -7.9641361e-316f, 8.9450413e-316f, -3.0260389e-316f, -5.1489192e-316f, 1.441060335e-315f, -1.982458537e-315f, 4.518327973e-315f, 2.1433939e-315f},
        {1.29653198e-315f, -0.003500202295542589f, 0.11154739796231014f, -1.96453855e-316f, -0.013688146377941813f, -0.21456235864314124f, -0.1390132383726834f, -0.03419663254264865f, 2.031022656e-315f, 7.8209737e-317f, 0.1472306312478937f, 0.14227102396991043f, 0.05247775356096962f, -0.0980698519611592f, -0.24630024629839234f, -4.8792535e-316f, -6.92905156e-316f, -0.10232063784441307f, -8.75496775e-316f, -0.006038899289970876f, 0.06748992690394674f, -2.63575757e-315f, 0.0944097828804976f, -0.011900894711758815f, 0.001778585350368595f, -0.018830988000049436f, 0.13792038476574306f, 0.0898216525332246f, 0.18632754433677487f, -4.910949857e-315f, 1.035865414e-315f, 4.7840835e-315f},
        {-2.3289261e-316f, 0.02104972507118956f, -0.0435116046104804f, -1.35280114e-315f, -0.035916423622737094f, 0.02627200729237028f, 0.1807136149539643f, -0.0035791207772067003f, 6.2335294e-316f, -1.14536958e-315f, 0.060633990690273684f, -0.07023781697508814f, 0.07792541204628482f, -0.03152438205170973f, -0.09664102430234642f, 8.2077367e-316f, -3.31860069e-315f, -0.02365129568089677f, 2.420985666e-315f, -0.050092548971135686f, -0.012116117280297963f, -9.2336176e-317f, 0.0346562134394731f, 0.05789855915448288f, -0.028328920435004092f, 0.0007699919908603215f, -0.04640857191742854f, -0.0043273704920733435f, -0.03029910019163359f, -1.97888024e-315f, -1.49753829e-315f, 4.956305434e-315f},
        {-3.36678075e-316f, 0.03132625708568348f, -0.0738578770206181f, -2.020155365e-315f, -0.017059656299086307f, -0.11781409974290069f, 0.15445867922236875f, -0.006847433949272292f, 1.21432061e-315f, -7.4386694e-316f, 0.022562958240073764f, 0.0709500172815502f, -0.06610044532065058f, -0.13150001609847653f, -0.2277439560100401f, -1.3007336e-316f, 2.96898135e-315f, -0.0442686700958347f, 3.0335791e-315f, 0.0507610450411151f, 0.010548343612037566f, -4.03352379e-315f, -0.007262236621072989f, 0.00945449393845577f, -0.0007832122913673549f, 0.046202069500016284f, 0.004013153470243231f, 0.025487841533293386f, -0.030375554034360368f, 4.61658867e-315f, -2.89215817e-316f, 4.816244647e-315f},
        {2.21590676e-315f, 0.014785204780688219f, 0.011032250392058608f, -1.78114599e-315f, -0.009539953871847213f, -0.16824038579117545f, -0.03175170534959115f, -0.027516146386718364f, 1.953274984e-315f, -6.9324104e-316f, -0.10505558816104088f, 0.027672825118051626f, 0.04845546368672488f, 0.0344429800141f, -0.2502432301716915f, 2.99079043e-315f, -1.365313476e-315f, -0.04608110403941029f, 3.480422932e-315f, -0.05599476066329602f, 0.05475197749129873f, -9.70160874e-316f, 0.0008368985999317619f, 0.01887238335446908f, 0.0067337616501414f, 0.002246976334000907f, 0.06579113266533174f, 0.12483917522201296f, 0.018594906169374897f, -9.23855935e-316f, -3.985221744e-315f, -3.75893614e-315f},
        {5.27182654e-316f, 2.992252004e-315f, 0.0782173669593563f, 6.2927387e-317f, 0.034337558443412776f, 0.15547496634667582f, 0.07557910541697183f, -0.014936956264825654f, -6.8395442e-316f, -6.32680363e-316f, -0.004114607826304283f, -0.10050888943378052f, 0.0005540671837998041f, -0.036029422546780425f, 0.18452828148589365f, 2.934890177e-315f, 4.65016127e-316f, -0.05369928326893026f, -2.68239998e-315f, -0.027929407483389103f, -0.012511645242760688f, -2.2256794e-316f, -0.08339877894053402f, 0.0007959170002676781f, -0.04556410649992508f, 0.001223258333203339f, -0.0005998174482120191f, -0.0021069206594977706f, 0.07918692393535441f, 2.45643846e-316f, 3.0427185e-316f, -3.450625853e-315f},
        {-1.419237767e-315f, 0.0035124775057624206f, 0.048782386096626024f, 2.240742855e-315f, 0.049269975300418774f, 0.24226589810565227f, 0.2440167807714568f, -0.013262307138902798f, -1.51342868e-315f, -2.146415e-316f, 0.04059045680763956f, -0.1495534932799426f, -0.049603872289331184f, -0.07256357889522852f, 0.23866581851531626f, 1.24915478e-315f, 4.10217e-318f, -0.034999814948140855f, 5.0758069e-316f, -0.04742409442147959f, -0.006218125528506188f, 1.73704981e-315f, -0.11952859642053318f, 0.02364934055189828f, -0.06090599833097639f, -0.022324143625742525f, -0.031043130740434518f, 0.04958904107535482f, 0.09584331821845095f, 2.56643459e-315f, -3.706217766e-315f, 2.12825414e-315f},
        {-1.24442874e-315f, 0.0007412630445234491f, -0.07164497863446706f, -2.476261874e-315f, -0.02786313368540291f, -0.018071360428448487f, -0.00926880995634507f, 0.012951679618529994f, -3.8501027e-316f, 6.60507577e-316f, -1.113425593e-315f, 0.08799565705697412f, 0.0469271347773952f, 0.061629033595609235f, -0.2967896691166044f, 3.53818199e-315f, 4.30008648e-315f, 0.04828745788273085f, -1.177041743e-315f, 0.048153617551922934f, -4.98463327e-315f, -1.11303854e-315f, 0.07182627753482078f, 0.004230810565282481f, 0.04023884704973164f, 0.09257751974754398f, 0.05914813263517993f, 1.497087266e-315f, -0.010813613063382398f, 3.48165294e-316f, -1.62619782e-315f, 2.36450966e-315f},
        {4.57951692e-315f, 0.010848076317574533f, -0.03305300962006871f, -2.2915303e-317f, -0.004725318452992548f, 0.1290672149279493f, 0.04662329211184856f, -0.01991680478959854f, 5.10158337e-316f, 2.70225011e-315f, 0.09700219628314881f, 0.05215229702016009f, -0.06194231522094639f, -0.033222624635357516f, -0.04000479411083183f, -2.730954053e-315f, 1.87742684e-315f, -0.07793843220248035f, 5.5005803e-316f, -0.04700091421809349f, -0.006711806876895688f, -7.7361257e-316f, 0.08073672097377892f, 0.1524150387720075f, -0.036462408602134025f, -0.05044680086815322f, 0.02113239029265344f, 0.03401390763305615f, -0.06077845433871527f, -1.819430747e-315f, 1.545951084e-315f, 3.376947256e-315f},
        {-3.28973704e-316f, 0.0011721958771317394f, -0.03387688484740439f, -2.24284993e-316f, -0.007506007872021701f, 0.0694855898062222f, -0.060527853680363376f, -0.021685982343228227f, 1.48416477e-315f, 9.41034766e-316f, 0.03839164490746569f, 0.006556673199539585f, -0.06189052880110701f, -0.1017106134468308f, -0.06542247717814269f, 4.842808877e-315f, 2.974847696e-315f, 0.01084024229890403f, 4.72522185e-316f, 0.015481357144814484f, 0.006911409572433239f, 4.7074462e-316f, -0.014256935570058587f, 0.0278237426339226f, -0.03879181966310249f, -0.04015991541977236f, -0.09666232943497484f, -0.028200525768889796f, -0.03073288307905942f, -4.71922864e-316f, 2.06120526e-316f, -7.23575146e-316f},
        {-4.492537584e-315f, 0.08016990841877811f, 0.023476600243464808f, -1.429638e-317f, -0.09612201406243558f, -0.3017257758845431f, -0.032018792780658785f, 0.02913828796790495f, -3.97554596e-315f, -8.6897353e-317f, 0.16352513482780134f, 0.10342300349948826f, -0.06627593803810139f, 0.18898098705535046f, -0.35189098833188226f, 4.61482786e-315f, -1.14284248e-315f, 0.1508150130135575f, -1.138291344e-315f, 0.0485356531049518f, -0.20699202292400617f, -4.529278355e-315f, -0.11927522105792773f, 0.1507320605006803f, 0.048259221512497695f, 0.17508534180001026f, -0.09420057523496357f, -0.1132355611883628f, 0.08952454502915178f, -4.10860604e-316f, -5.79980974e-316f, 2.4905470004759303e-289f},
        {1.002098226e-315f, -0.005269604838080173f, 0.030166101867920264f, -2.159990834e-315f, -0.02851333385048115f, -0.06622487209237526f, 0.25684295746284447f, 0.03389083654734735f, 2.707413534e-315f, -1.404754015e-315f, -0.13452301938534356f, 0.022238105678797467f, 0.030486232529416242f, 0.027670137445127366f, 0.003877390016681041f, 3.97559202e-315f, 3.151744487e-315f, 0.09334699878760817f, -4.5876193e-316f, 0.04931630102024591f, -0.10416334996783394f, -4.0485649e-316f, 0.05990471206810406f, -0.005176947773481229f, 0.023325671480706002f, 0.04448922822588718f, -0.012741882903129824f, -0.04484518902801202f, 0.04881322596305278f, -2.03133777e-315f, -1.29691762e-315f, 3.238078565e-315f},
        {1.75444753e-315f, -0.001689836228539078f, 0.06136691299057243f, 1.69782011e-315f, 0.07758037608765198f, 0.17560561541442496f, 0.24576627875163723f, 0.044307595492780544f, -4.187053667e-315f, 3.54108495e-315f, -0.01049406448274812f, -0.11389713575066021f, -0.034671709657845676f, 0.1156407269148847f, 0.14881458807572598f, -2.13512695e-315f, -9.00018893e-316f, 0.07484317673406364f, -2.85223707e-315f, 0.07693169972490556f, -0.08377506627938822f, -3.854246834e-315f, 0.035885507570402125f, 0.04572995403693628f, -0.0730683428960983f, 0.1865185299856857f, -0.02482304537799059f, -0.11384168372828751f, 0.09202008113695762f, -2.84073771e-315f, 1.9591113e-316f, 3.492792854e-315f},
        {-2.624359005e-315f, 0.00514627765932768f, -0.03374366962611804f, -9.0059857e-317f, 0.013300756016206559f, 0.16901522563980093f, 0.006962239393565017f, 0.005901457802862999f, 1.825996865e-315f, 3.09630402e-315f, -0.1472020571139861f, -0.05672097057010062f, 0.08152142774361956f, -0.014786749089035125f, 0.22207569613831954f, -1.5056954e-316f, 4.307761405e-315f, 0.01750376122578588f, 5.250756e-316f, -0.06922404384589613f, -0.03972324079411777f, -3.19302246e-316f, -0.042308021225533544f, -0.0492218294864894f, -0.030778285233284894f, -0.08613967364367466f, 0.07159964268705382f, -0.07309743272198256f, 0.053666912594556124f, 4.171805334e-315f, 8.07634917e-316f, 1.960961227e-315f},
        {-4.842525165e-315f, 1.571960395e-315f, 4.386970646e-315f, -6.07317745e-316f, -1.809247313e-315f, -4.07432227e-315f, -4.668923303e-315f, -5.17272547e-316f, 1.801122246e-315f, 1.38265916e-316f, 2.97557771e-315f, -5.348927e-316f, -1.37859712e-315f, 2.54643342e-315f, -4.135548025e-315f, 1.617227524e-315f, -4.75666883e-316f, -6.9972988e-316f, 3.985297425e-315f, 7.02209924e-316f, -1.67354039e-315f, -4.084138924e-315f, -1.56599205e-316f, 2.51118185e-315f, 3.083104846e-315f, -1.61405229e-315f, -2.39770929e-315f, -2.611288695e-315f, 4.243691846e-315f, -3.65288253e-315f, -1.2225158e-316f, -4.61392793e-316f},
        {4.319980355e-315f, 5.7214318e-316f, -2.066857627e-315f, 1.47200473e-315f, -3.398137006e-315f, -2.9515789e-316f, -7.8839604e-316f, 1.7184282e-315f, 2.686572823e-315f, 3.2691222e-316f, 2.03786843e-315f, -1.95257999e-315f, -3.761643e-316f, 1.25993405e-316f, -9.32677803e-316f, -1.915763855e-315f, 9.37830903e-316f, 4.35891597e-315f, -6.31702206e-316f, 3.749934013e-315f, -1.00357571e-315f, 4.1738872e-316f, 8.45272018e-316f, 7.26824764e-316f, -1.175797567e-315f, 2.310122775e-315f, -2.39581863e-315f, -4.04230301e-315f, 6.20588343e-316f, -1.27542137e-315f, 1.08790846e-315f, -1.3995916e-317f},
        {-3.29559992e-315f, -0.00028294742296321347f, -0.047926543512618575f, 4.69351003e-315f, 0.03216458849112648f, -0.04080200363612754f, 0.05436346047337874f, -0.028267854934586324f, -6.10205544e-316f, 6.69809416e-316f, 0.3151772031032241f, 0.03240567160150119f, -0.12249929888720941f, -0.165916985998403f, 0.11491620883797565f, -3.522493694e-315f, -2.1544694e-315f, -0.03067164673838264f, -4.113311944e-315f, 0.08574525424358115f, 0.10304859398142113f, -3.13630303e-315f, -0.11974300019243297f, 0.032411284164666564f, 0.04172644059488281f, -0.027070543553610653f, -0.05429031455189606f, 0.042878884454866845f, 0.14049039646825512f, 4.41141084e-315f, -9.2336385e-316f, 3.18573998e-315f},
        {4.197126184e-315f, 0.004341298531777281f, 0.06035430939209169f, -1.35400942e-315f, 0.03000679206159129f, 0.17976648116152305f, -0.16975525373160769f, -0.009502372442187223f, -3.8555542e-316f, -8.3898909e-316f, 0.02901639219693973f, -0.10027187883661698f, -0.05119258604531992f, -0.03539855855996345f, 0.18520561210731126f, 2.91235557e-315f, 1.22887557e-315f, 0.09973846265091338f, 2.49769148e-315f, 0.025765337955374997f, -0.1112975634125595f, -2.67757044e-316f, -0.0775529992780862f, 0.01416874260513042f, 0.011342772102267746f, 0.09511996890184332f, -0.010995303212281335f, -0.06891003840865344f, -0.12671827233568222f, -1.94420196e-315f, 1.841009736e-315f, 1.05890725e-315f},
        {8.4079324e-316f, 0.08808925099583893f, -0.13029131063405985f, 4.11855044e-316f, 0.0058990496058123065f, 0.011753141902534464f, 0.25352728975528604f, -0.027747667935921507f, -1.664745715e-315f, 9.09821645e-316f, 0.042872621092801995f, 0.13593072353290317f, 0.026178631419265654f, -0.23618893191393456f, 0.09791610956586941f, 2.646243e-315f, 1.46664962e-315f, -0.07066832979645839f, 2.31393682e-315f, -0.005703042032946582f, 0.05806022971578097f, -1.8899007e-316f, -0.029110645492292225f, 0.17660431282776437f, 0.1218969818458314f, -0.17334843909540704f, -0.009834021986215878f, 0.0605571162457228f, 0.08715463003978745f, 7.4242032e-316f, 3.001972874e-315f, -2.60156152313e-313f},
        {-5.2051627e-316f, 0.02040328652591407f, 0.018596129443750643f, -2.62692394e-315f, 0.001467750576615854f, 0.08311894338963008f, 0.20164977898311523f, 0.019824668902544355f, -4.2253128e-316f, 4.4464347e-316f, -0.10179669090110208f, 0.006948126525642709f, -0.15757030797577956f, 0.05843345571845665f, 0.21069318825366404f, 1.555535533e-315f, 2.59117237e-315f, 0.01708372110219355f, 3.44735564e-316f, -0.058693867147483154f, -0.13976184537561948f, 2.641427194e-315f, 0.03008820299291431f, -0.04889497635720436f, 0.008995117862932533f, -0.031151600406098337f, -0.09971957052174038f, -0.12856236588903547f, -0.06847216056641656f, 3.084020127e-315f, 2.25561149e-315f, 1.19862057e-315f},
        {-3.361013086e-315f, 0.005032607382266828f, 0.10022464609588473f, -9.82182924e-316f, 0.008359104456466182f, -0.06673949428598895f, 0.2897296903052506f, -0.003667396883836961f, -6.61702144e-316f, 4.4108513e-315f, 0.10649500932897298f, -0.0251038856042887f, 0.06285531426922306f, -0.10531946982396562f, -0.16698104856189547f, -3.229320945e-315f, -2.65511247e-315f, -0.026431625335952773f, 5.32646664e-316f, 0.17823466466446264f, 0.09065738277572304f, 1.53483064e-315f, -0.0231157904106523f, -0.05673938605906014f, -0.013539194093540546f, 0.04263441773991334f, 0.0042476902826517554f, 0.04909982799696411f, -0.08605256875387682f, -1.815478277e-315f, 4.52158788e-315f, -3.885693925e-315f},
        {9.4090699e-316f, -0.002404822265298328f, 0.16975451372068637f, -2.73578596e-315f, 0.07568350954732048f, 0.23878481808382654f, 0.12051596368715693f, -0.04483074386499942f, 9.271115e-317f, -3.56079689e-315f, 0.0376658426912427f, -0.1314107199796494f, -0.04808761300013718f, -0.09238149475897332f, 0.09003165924449366f, -2.25107526e-315f, -7.5840978e-316f, -0.09978997033078771f, -3.758707492e-315f, -0.058281605800911795f, -0.021521706709139356f, 2.417302486e-315f, -0.16893163704599312f, -0.04817567358627945f, -0.1226265491604891f, -0.11192431533118f, -0.08408796854193235f, -0.056435860668355195f, 0.1609429274532383f, 3.5023232e-316f, -4.84176067e-316f, -3.50297375e-316f},
        {3.18526077e-315f, 0.12866445429835324f, -0.11953732478507441f, 1.1208136e-315f, 0.0983257134313554f, 0.026148003342130566f, 0.14463927162225004f, -0.12258331253509233f, 1.75882482e-315f, -8.01561066e-316f, 0.052429488020057854f, 0.27726300190741743f, -0.124959420167587f, 0.011813012185816119f, -0.22657812283261292f, -3.86976828e-315f, -3.426357077e-315f, 0.2108526326326325f, -2.59191403e-315f, -0.031690546394380945f, -0.09693481750920337f, 3.91073777e-315f, -0.09299462225392979f, -0.06560017579732867f, 0.1606424987619252f, -0.058473654957003435f, 0.015844668647396483f, -0.03601211964216223f, 0.24374124057903224f, 3.86517948e-315f, -7.5372182e-316f, 1.1353668836129938e-265f},
        {5.31565065e-316f, 0.0015412090906417922f, 0.10958708174896471f, -1.24090271e-315f, 0.04546484765308583f, 0.2841476370702608f, 0.18271897733861361f, -0.014505121995534415f, 4.19015407e-315f, -2.177447414e-315f, -0.011492512080474044f, -0.14148091536767257f, -0.0007353032462583738f, -0.08147878215154504f, 0.3477030781970435f, 3.122315526e-315f, 5.478142e-316f, -0.07843780203046084f, -5.6387861e-316f, 0.017945143830621565f, 2.39154799e-315f, 2.202230166e-315f, -0.11573598230732553f, 0.014712147438214338f, -0.06464383900483617f, 0.0017979380373690519f, 0.03136379617332831f, 4.2745782782411035e-148f, 0.06485210632232499f, -1.79748052e-315f, -1.019063917e-315f, -3.54614083e-315f},
        {-4.335889496e-315f, 0.0015006084293853216f, -0.006807687503323652f, -2.363727064e-315f, -0.024347202132930797f, -0.17375414625386734f, -0.04023225299635454f, -0.02380327966695298f, 2.362656864e-315f, -1.531347003e-315f, 0.19113627644280318f, 0.08370542085592927f, 0.0988054744013257f, -0.11861482385071138f, -0.26274956349232487f, 3.150827116e-315f, 1.019709206e-315f, -0.09032071331707403f, 2.7446241e-316f, 0.00641600343743413f, 0.1004392997972111f, -2.86704296e-315f, -0.005349165063619784f, 0.10485913537154505f, 0.025027129100346934f, 0.0007386644617850684f, 0.12650385262719457f, 0.12268449566268173f, 0.05486286367010378f, -3.7272668e-315f, -1.805792288e-315f, 2.009193857e-315f},
        {-1.656650277e-315f, 0.01787326913351467f, -0.1169543359904355f, -2.215587587e-315f, -0.04133857335256034f, -0.13638307179417447f, -0.22880992452281548f, -0.01572156015976384f, 9.50279717e-316f, 4.60157397e-316f, 0.13025453940637655f, 0.08346161489046412f, -0.02858387534052746f, -0.07191574134855089f, -0.14356119177902482f, 4.0961096e-316f, 1.85948686e-316f, 0.023730000702498876f, 3.902537853e-315f, 0.14149187097254529f, 0.04211283701622188f, 2.48617123e-316f, 0.08377169788906219f, 0.07731681219079342f, 0.04398592856671417f, 0.025681390197432846f, -0.01976850671410939f, 0.10940061835041515f, 0.06189355943543887f, -1.504832886e-315f, -9.53385424e-316f, -3.89463844e-315f},
        {3.74590616e-315f, 0.0193229666967694f, -0.15342128651233705f, 1.972834143e-315f, 0.015428952975618051f, 0.1681193696506714f, 0.044990202454041f, -0.029747431904529147f, -1.492801567e-315f, 3.9009934e-316f, -0.10629187548222474f, -0.12169198709087661f, -0.08105865058603733f, -0.17548392164343798f, -0.04251635200870312f, -4.654807343e-315f, -3.82051747e-315f, 0.021513698009451552f, 8.3180785e-316f, 0.004021743536554851f, 0.0003070508902177707f, -1.17675031e-315f, -0.014045389215241498f, -0.16938867665315824f, -0.0051203210886762544f, 0.04568487161002764f, 0.039049510596137184f, -0.06594813854642387f, -0.05655273952896802f, 4.14687543e-315f, -5.73708504e-316f, 3.708951727e-315f},
        {2.945231994e-315f, 0.046613617659086164f, 0.09874905177288247f, -3.5018629e-316f, -0.05974361090156274f, -0.003054200886351998f, 0.11417528076755683f, 0.012483084246084073f, 1.39584749e-315f, -9.842976e-317f, 0.32702818829819447f, 0.10300649007722908f, 0.11333425051972486f, -0.013427176152881288f, -0.0452074702140179f, 3.48641863e-315f, -3.80635737e-315f, 0.01124719336501436f, 8.525427e-316f, 0.10331340823816487f, -0.04689648180578704f, 2.909488454e-315f, 0.015481507019555217f, -0.08177236749853738f, 0.10555983587018765f, -0.06156810291673231f, -0.16043486703829168f, -0.07510372975236095f, 0.13531990770745272f, 3.61368101e-315f, 6.6634777e-316f, 1.2128642092532543e-297f},
        {-2.359977966e-315f, 0.04254426846430635f, -0.08577463893784996f, -3.526519376e-315f, -0.06247039860197007f, 0.012896634626010537f, -0.03985771231263062f, 0.027313788341064345f, 5.82482295e-316f, -8.2939311e-316f, 0.14058763576542996f, 0.01570104017929225f, 0.016539161518453867f, -0.058674828989937686f, -0.27142236388986657f, -6.8515129e-316f, -1.484845184e-315f, 0.0050670187903665564f, -2.69596959e-315f, 0.07711023642075984f, 0.029601514409405828f, -5.8759437e-316f, 0.09869654863324588f, 0.016261686375971956f, 0.06194115341016028f, -0.003192883999188284f, 0.0026236657189678287f, 0.07259051387387433f, 0.17274950684990678f, -2.23215529e-315f, 5.61325223e-316f, 1.148895446e-315f},
    };
    const float B2[32] = {-3.2120610692035075e-07f, -0.09094613599881142f, 0.021476383387877034f, -2.3686059941185103e-14f, 0.14956097992934916f, 0.04320709122463404f, -0.15208886637505464f, 0.04843870933833447f, -0.0004948443590177306f, -0.24484492408705386f, -0.18397284679157183f, 0.2930045948153078f, 0.09373439332610072f, 0.11789655289601014f, 0.20926258313886628f, -0.003163144049685611f, -0.02073209139432235f, 0.025163549456537156f, -0.11209686389677856f, -0.013391439717434436f, 0.023585696474216798f, -9.07333651314394e-06f, 0.26326759835531743f, -0.029213034478380192f, 0.09644409662669921f, -0.06731804445355569f, 0.03797004271213331f, 0.009510385172842832f, -0.12621830355816108f, -0.013984978995124037f, -0.2423618214922355f, -0.04518148688250239f};

    const float W3[32][1] = {
        {-1.03419158e-315f},
        {0.02665574175634889f},
        {0.30267813478796085f},
        {1.0072270703067187e-203f},
        {0.12314259989858749f},
        {0.6181372421746316f},
        {0.6469633049221548f},
        {-0.05930109401991977f},
        {3.7968434e-316f},
        {5.85280475e-316f},
        {-0.5584656533941165f},
        {-0.38130633306412154f},
        {-0.2209277004408276f},
        {-0.27001824230012333f},
        {0.7186129005664662f},
        {-1.93990041e-315f},
        {3.561328445e-315f},
        {-0.2112400684223867f},
        {4.678799087e-315f},
        {-0.214636109251184f},
        {-0.30257654592103395f},
        {-5.2130462e-316f},
        {-0.3118997255786594f},
        {-0.2061158736512516f},
        {-0.17705040860279564f},
        {-0.3861546772945659f},
        {-0.21241841528256064f},
        {-0.26851141700771236f},
        {0.31441692118957787f},
        {3.09821501e-315f},
        {-2.66593783e-315f},
        {-2.0248955256931072e-229f},
    };
    const float B3[1] = {0.33026537448346927f};

}
