#pragma once

namespace VMF_TENSOR {
    constexpr int RANK = 8;

    const float WEIGHTS[8] = {
        1.000000f, 1.000000f, 1.000000f, 1.000000f, 1.000000f, 1.000000f, 1.000000f, 1.000000f
    };

    const float KAPPA[100][RANK] = {
        {5.652060f, 2.523680f, -0.000705f, -0.001899f, -0.000887f, -0.000075f, 0.000104f, -0.000010f},
        {5.773813f, 2.514916f, -0.000441f, -0.001984f, -0.000865f, -0.000068f, 0.000107f, -0.000010f},
        {6.024939f, 2.523286f, -0.000384f, -0.002052f, -0.000843f, -0.000060f, 0.000110f, -0.000010f},
        {6.275411f, 2.462004f, -0.000290f, -0.002180f, -0.000820f, -0.000052f, 0.000114f, -0.000011f},
        {6.566226f, 2.444174f, -0.000816f, -0.002200f, -0.000789f, -0.000043f, 0.000116f, -0.000011f},
        {6.802429f, 2.425176f, -0.001438f, -0.002202f, -0.000769f, -0.000036f, 0.000119f, -0.000011f},
        {7.149437f, 2.422211f, -0.000286f, -0.002482f, -0.000740f, -0.000025f, 0.000124f, -0.000012f},
        {7.496176f, 2.372008f, -0.000919f, -0.002484f, -0.000714f, -0.000017f, 0.000127f, -0.000012f},
        {7.792262f, 2.327393f, -0.000904f, -0.002642f, -0.000698f, -0.000008f, 0.000131f, -0.000012f},
        {8.190452f, 2.241928f, -0.002318f, -0.002512f, -0.000658f, 0.000001f, 0.000134f, -0.000012f},
        {8.503250f, 2.263857f, -0.002224f, -0.002658f, -0.000637f, 0.000009f, 0.000137f, -0.000013f},
        {8.946976f, 2.154618f, -0.002267f, -0.002816f, -0.000605f, 0.000021f, 0.000143f, -0.000013f},
        {9.296516f, 2.102709f, -0.003517f, -0.002795f, -0.000581f, 0.000029f, 0.000145f, -0.000013f},
        {9.732055f, 2.070330f, -0.003296f, -0.002934f, -0.000557f, 0.000038f, 0.000150f, -0.000014f},
        {10.156660f, 2.012765f, -0.004582f, -0.002870f, -0.000528f, 0.000047f, 0.000154f, -0.000014f},
        {10.679073f, 1.936807f, -0.005008f, -0.002975f, -0.000501f, 0.000057f, 0.000158f, -0.000014f},
        {11.138376f, 1.868677f, -0.005758f, -0.003005f, -0.000479f, 0.000064f, 0.000161f, -0.000015f},
        {11.592624f, 1.792942f, -0.007593f, -0.002944f, -0.000450f, 0.000073f, 0.000163f, -0.000015f},
        {12.042745f, 1.716564f, -0.008192f, -0.002996f, -0.000431f, 0.000081f, 0.000167f, -0.000016f},
        {12.598183f, 1.649500f, -0.009317f, -0.002987f, -0.000411f, 0.000087f, 0.000170f, -0.000016f},
        {13.166975f, 1.554068f, -0.010846f, -0.002947f, -0.000384f, 0.000095f, 0.000172f, -0.000016f},
        {13.745449f, 1.475343f, -0.010759f, -0.003118f, -0.000368f, 0.000104f, 0.000177f, -0.000017f},
        {14.256145f, 1.388321f, -0.014416f, -0.002738f, -0.000343f, 0.000108f, 0.000177f, -0.000017f},
        {14.821698f, 1.315656f, -0.015171f, -0.002772f, -0.000329f, 0.000112f, 0.000179f, -0.000017f},
        {15.374339f, 1.223790f, -0.017809f, -0.002547f, -0.000311f, 0.000116f, 0.000180f, -0.000017f},
        {15.985885f, 1.133123f, -0.018825f, -0.002548f, -0.000297f, 0.000121f, 0.000182f, -0.000017f},
        {16.494856f, 1.054317f, -0.020628f, -0.002411f, -0.000284f, 0.000123f, 0.000182f, -0.000017f},
        {17.128664f, 0.936579f, -0.023680f, -0.002131f, -0.000268f, 0.000125f, 0.000181f, -0.000017f},
        {17.664058f, 0.860079f, -0.024648f, -0.002104f, -0.000260f, 0.000127f, 0.000182f, -0.000018f},
        {18.161991f, 0.807202f, -0.027021f, -0.001814f, -0.000247f, 0.000127f, 0.000180f, -0.000017f},
        {18.732335f, 0.704847f, -0.029178f, -0.001626f, -0.000238f, 0.000127f, 0.000179f, -0.000017f},
        {19.276212f, 0.643917f, -0.029934f, -0.001599f, -0.000230f, 0.000128f, 0.000179f, -0.000018f},
        {19.767315f, 0.577301f, -0.031981f, -0.001367f, -0.000223f, 0.000126f, 0.000176f, -0.000017f},
        {20.328840f, 0.509039f, -0.034186f, -0.001080f, -0.000212f, 0.000124f, 0.000173f, -0.000017f},
        {20.873309f, 0.437113f, -0.035366f, -0.000924f, -0.000205f, 0.000122f, 0.000170f, -0.000017f},
        {21.325351f, 0.391341f, -0.035772f, -0.000913f, -0.000201f, 0.000121f, 0.000168f, -0.000017f},
        {21.806082f, 0.326367f, -0.039022f, -0.000469f, -0.000190f, 0.000115f, 0.000161f, -0.000016f},
        {22.250626f, 0.284154f, -0.039890f, -0.000368f, -0.000186f, 0.000114f, 0.000160f, -0.000016f},
        {22.665128f, 0.244206f, -0.042623f, 0.000106f, -0.000173f, 0.000107f, 0.000152f, -0.000015f},
        {23.104678f, 0.199873f, -0.042519f, 0.000111f, -0.000169f, 0.000104f, 0.000150f, -0.000015f},
        {23.524606f, 0.166587f, -0.043502f, 0.000288f, -0.000162f, 0.000100f, 0.000145f, -0.000015f},
        {23.905821f, 0.124656f, -0.044608f, 0.000519f, -0.000154f, 0.000096f, 0.000140f, -0.000014f},
        {24.278329f, 0.095284f, -0.045096f, 0.000626f, -0.000147f, 0.000091f, 0.000134f, -0.000014f},
        {24.660823f, 0.078658f, -0.045950f, 0.000836f, -0.000139f, 0.000085f, 0.000128f, -0.000013f},
        {25.027157f, 0.048154f, -0.045846f, 0.000875f, -0.000134f, 0.000082f, 0.000124f, -0.000013f},
        {25.333675f, 0.030049f, -0.046231f, 0.001021f, -0.000127f, 0.000078f, 0.000120f, -0.000013f},
        {25.662928f, 0.011633f, -0.047484f, 0.001329f, -0.000116f, 0.000070f, 0.000111f, -0.000012f},
        {26.013835f, -0.003868f, -0.046993f, 0.001305f, -0.000110f, 0.000066f, 0.000106f, -0.000012f},
        {26.243577f, -0.018508f, -0.046871f, 0.001355f, -0.000105f, 0.000063f, 0.000101f, -0.000011f},
        {26.548782f, -0.025978f, -0.047633f, 0.001669f, -0.000091f, 0.000054f, 0.000092f, -0.000010f},
        {26.806859f, -0.036011f, -0.046739f, 0.001652f, -0.000086f, 0.000051f, 0.000088f, -0.000010f},
        {27.100204f, -0.047342f, -0.046027f, 0.001634f, -0.000080f, 0.000047f, 0.000083f, -0.000010f},
        {27.317542f, -0.050380f, -0.046522f, 0.001804f, -0.000071f, 0.000041f, 0.000076f, -0.000009f},
        {27.537955f, -0.056298f, -0.045458f, 0.001783f, -0.000064f, 0.000037f, 0.000071f, -0.000009f},
        {27.771453f, -0.060966f, -0.045141f, 0.001892f, -0.000055f, 0.000031f, 0.000064f, -0.000008f},
        {27.998292f, -0.065616f, -0.044279f, 0.001876f, -0.000049f, 0.000027f, 0.000059f, -0.000007f},
        {28.226392f, -0.069441f, -0.043437f, 0.001859f, -0.000042f, 0.000023f, 0.000053f, -0.000007f},
        {28.382339f, -0.067642f, -0.042515f, 0.001890f, -0.000034f, 0.000018f, 0.000047f, -0.000006f},
        {28.593985f, -0.068091f, -0.041773f, 0.001900f, -0.000027f, 0.000013f, 0.000041f, -0.000006f},
        {28.766105f, -0.068993f, -0.040872f, 0.001890f, -0.000021f, 0.000009f, 0.000037f, -0.000006f},
        {28.937325f, -0.070510f, -0.039854f, 0.001870f, -0.000015f, 0.000005f, 0.000031f, -0.000005f},
        {29.116007f, -0.068043f, -0.038945f, 0.001873f, -0.000007f, 0.000001f, 0.000025f, -0.000005f},
        {29.254765f, -0.068021f, -0.037564f, 0.001798f, -0.000002f, -0.000003f, 0.000021f, -0.000004f},
        {29.426604f, -0.067629f, -0.035858f, 0.001690f, 0.000004f, -0.000007f, 0.000016f, -0.000004f},
        {29.530438f, -0.059670f, -0.035741f, 0.001822f, 0.000012f, -0.000011f, 0.000011f, -0.000003f},
        {29.695199f, -0.062989f, -0.034122f, 0.001672f, 0.000017f, -0.000014f, 0.000006f, -0.000003f},
        {29.780272f, -0.056396f, -0.033717f, 0.001760f, 0.000024f, -0.000019f, 0.000001f, -0.000002f},
        {29.921900f, -0.055650f, -0.032165f, 0.001628f, 0.000029f, -0.000022f, -0.000003f, -0.000002f},
        {30.052204f, -0.053984f, -0.030812f, 0.001564f, 0.000034f, -0.000025f, -0.000007f, -0.000002f},
        {30.166566f, -0.050019f, -0.029811f, 0.001536f, 0.000040f, -0.000028f, -0.000012f, -0.000001f},
        {30.261136f, -0.047057f, -0.028966f, 0.001526f, 0.000045f, -0.000032f, -0.000016f, -0.000001f},
        {30.375290f, -0.045236f, -0.027452f, 0.001400f, 0.000049f, -0.000034f, -0.000020f, -0.000001f},
        {30.462601f, -0.041350f, -0.026586f, 0.001390f, 0.000055f, -0.000038f, -0.000024f, -0.000000f},
        {30.561392f, -0.040184f, -0.025274f, 0.001294f, 0.000059f, -0.000040f, -0.000028f, -0.000000f},
        {30.650073f, -0.035221f, -0.024240f, 0.001262f, 0.000064f, -0.000043f, -0.000031f, 0.000000f},
        {30.739482f, -0.032971f, -0.023065f, 0.001204f, 0.000068f, -0.000046f, -0.000034f, 0.000001f},
        {30.796236f, -0.028239f, -0.022498f, 0.001191f, 0.000072f, -0.000049f, -0.000038f, 0.000001f},
        {30.858026f, -0.023884f, -0.021624f, 0.001168f, 0.000077f, -0.000052f, -0.000042f, 0.000001f},
        {30.951785f, -0.023668f, -0.020360f, 0.001065f, 0.000080f, -0.000053f, -0.000045f, 0.000001f},
        {31.022645f, -0.020179f, -0.019154f, 0.000997f, 0.000084f, -0.000056f, -0.000048f, 0.000002f},
        {31.063468f, -0.015174f, -0.018925f, 0.001030f, 0.000088f, -0.000058f, -0.000051f, 0.000002f},
        {31.146737f, -0.014418f, -0.017304f, 0.000888f, 0.000092f, -0.000060f, -0.000054f, 0.000002f},
        {31.199715f, -0.012240f, -0.016493f, 0.000845f, 0.000094f, -0.000062f, -0.000056f, 0.000002f},
        {31.254587f, -0.007892f, -0.015817f, 0.000828f, 0.000098f, -0.000064f, -0.000059f, 0.000003f},
        {31.305174f, -0.006249f, -0.014920f, 0.000759f, 0.000101f, -0.000067f, -0.000062f, 0.000003f},
        {31.365498f, -0.004741f, -0.013942f, 0.000682f, 0.000104f, -0.000068f, -0.000064f, 0.000003f},
        {31.420228f, -0.001974f, -0.013091f, 0.000640f, 0.000107f, -0.000070f, -0.000066f, 0.000003f},
        {31.461619f, 0.001441f, -0.012286f, 0.000598f, 0.000110f, -0.000072f, -0.000068f, 0.000004f},
        {31.496240f, 0.003930f, -0.011790f, 0.000572f, 0.000112f, -0.000073f, -0.000071f, 0.000004f},
        {31.537085f, 0.005409f, -0.011068f, 0.000521f, 0.000114f, -0.000075f, -0.000073f, 0.000004f},
        {31.581413f, 0.007908f, -0.010186f, 0.000461f, 0.000117f, -0.000076f, -0.000075f, 0.000004f},
        {31.639136f, 0.009232f, -0.009181f, 0.000389f, 0.000119f, -0.000078f, -0.000076f, 0.000004f},
        {31.661704f, 0.011974f, -0.008732f, 0.000371f, 0.000122f, -0.000079f, -0.000078f, 0.000004f},
        {31.697820f, 0.013614f, -0.008033f, 0.000317f, 0.000124f, -0.000080f, -0.000081f, 0.000005f},
        {31.720694f, 0.016948f, -0.007707f, 0.000321f, 0.000126f, -0.000082f, -0.000082f, 0.000005f},
        {31.765403f, 0.018070f, -0.006844f, 0.000252f, 0.000128f, -0.000083f, -0.000084f, 0.000005f},
        {31.787709f, 0.019566f, -0.006347f, 0.000215f, 0.000130f, -0.000084f, -0.000086f, 0.000005f},
        {31.815819f, 0.021753f, -0.005703f, 0.000175f, 0.000132f, -0.000085f, -0.000087f, 0.000005f},
        {31.843440f, 0.023081f, -0.005223f, 0.000141f, 0.000133f, -0.000086f, -0.000089f, 0.000005f},
        {31.881624f, 0.024081f, -0.004452f, 0.000081f, 0.000135f, -0.000087f, -0.000090f, 0.000005f},
    };

    const float TH1[40][RANK] = {
        {0.310694f, 0.009375f, 0.013920f, 0.027582f, 0.317913f, 0.100989f, 0.625867f, -0.341219f},
        {0.309794f, 0.017300f, -0.075366f, -0.117981f, 0.280954f, 0.102957f, 0.615522f, -0.324672f},
        {0.306879f, 0.026050f, -0.163223f, -0.259133f, 0.251281f, 0.103720f, 0.603033f, -0.308200f},
        {0.301969f, 0.035609f, -0.248725f, -0.393710f, 0.229360f, 0.103306f, 0.588370f, -0.292190f},
        {0.295094f, 0.045927f, -0.330968f, -0.519715f, 0.215641f, 0.101748f, 0.571467f, -0.277128f},
        {0.286298f, 0.056939f, -0.409046f, -0.635271f, 0.210498f, 0.099069f, 0.552233f, -0.263625f},
        {0.275639f, 0.068559f, -0.482030f, -0.738567f, 0.214293f, 0.095274f, 0.530559f, -0.252500f},
        {0.263185f, 0.080704f, -0.548970f, -0.827907f, 0.227391f, 0.090291f, 0.506310f, -0.244685f},
        {0.249022f, 0.093282f, -0.608894f, -0.901797f, 0.249980f, 0.083943f, 0.479324f, -0.241255f},
        {0.233248f, 0.106184f, -0.660800f, -0.959033f, 0.282146f, 0.075939f, 0.449408f, -0.243443f},
        {0.215975f, 0.119265f, -0.703666f, -0.998700f, 0.323742f, 0.065870f, 0.416310f, -0.252698f},
        {0.197334f, 0.132365f, -0.736421f, -1.020274f, 0.374668f, 0.053018f, 0.379799f, -0.270557f},
        {0.177479f, 0.145282f, -0.757951f, -1.023689f, 0.434508f, 0.036472f, 0.339597f, -0.298781f},
        {0.156591f, 0.157787f, -0.767102f, -1.009381f, 0.503087f, 0.014985f, 0.295478f, -0.339143f},
        {0.134897f, 0.169609f, -0.762731f, -0.978400f, 0.579991f, -0.012968f, 0.247301f, -0.393221f},
        {0.112694f, 0.180440f, -0.743751f, -0.932434f, 0.664967f, -0.049027f, 0.195221f, -0.461901f},
        {0.090412f, 0.189959f, -0.709431f, -0.874026f, 0.758481f, -0.094461f, 0.140336f, -0.543560f},
        {0.068728f, 0.197896f, -0.659701f, -0.806744f, 0.861847f, -0.148593f, 0.085668f, -0.631098f},
        {0.048739f, 0.204130f, -0.595944f, -0.735704f, 0.979024f, -0.206646f, 0.038145f, -0.706737f},
        {0.031938f, 0.208758f, -0.521875f, -0.667227f, 1.116437f, -0.258669f, 0.009029f, -0.740886f},
        {0.019587f, 0.212066f, -0.443358f, -0.604935f, 1.279012f, -0.294855f, 0.008183f, -0.707108f},
        {0.011768f, 0.214334f, -0.366448f, -0.545512f, 1.464302f, -0.314546f, 0.035201f, -0.605459f},
        {0.007371f, 0.215569f, -0.295280f, -0.481893f, 1.663759f, -0.326708f, 0.079715f, -0.462768f},
        {0.005050f, 0.215496f, -0.231861f, -0.410549f, 1.869460f, -0.340961f, 0.130586f, -0.309042f},
        {0.003875f, 0.213748f, -0.176968f, -0.333397f, 2.077478f, -0.362052f, 0.181389f, -0.162408f},
        {0.003324f, 0.210030f, -0.130609f, -0.255182f, 2.286772f, -0.390642f, 0.229761f, -0.030049f},
        {0.003125f, 0.204202f, -0.092348f, -0.180586f, 2.497246f, -0.425457f, 0.275223f, 0.086372f},
        {0.003128f, 0.196264f, -0.061496f, -0.113130f, 2.708348f, -0.464664f, 0.317917f, 0.187349f},
        {0.003246f, 0.186318f, -0.037254f, -0.055117f, 2.919166f, -0.506476f, 0.358142f, 0.274133f},
        {0.003426f, 0.174557f, -0.018747f, -0.007642f, 3.128227f, -0.549213f, 0.396135f, 0.348145f},
        {0.003635f, 0.161223f, -0.005146f, 0.029069f, 3.333667f, -0.591500f, 0.432063f, 0.410711f},
        {0.003854f, 0.146571f, 0.004343f, 0.055493f, 3.533647f, -0.632263f, 0.466084f, 0.463073f},
        {0.004069f, 0.130870f, 0.010446f, 0.072485f, 3.726205f, -0.670658f, 0.498281f, 0.506250f},
        {0.004270f, 0.114376f, 0.013801f, 0.081242f, 3.909122f, -0.706028f, 0.528688f, 0.541080f},
        {0.004451f, 0.097349f, 0.015010f, 0.083160f, 4.080463f, -0.737874f, 0.557301f, 0.568277f},
        {0.004609f, 0.080060f, 0.014622f, 0.079691f, 4.238237f, -0.765783f, 0.584050f, 0.588379f},
        {0.004738f, 0.062754f, 0.013116f, 0.072304f, 4.380391f, -0.789447f, 0.608847f, 0.601784f},
        {0.004838f, 0.045662f, 0.010962f, 0.062554f, 4.505176f, -0.808648f, 0.631600f, 0.608830f},
        {0.004905f, 0.028995f, 0.008582f, 0.051962f, 4.611053f, -0.823237f, 0.652215f, 0.609738f},
        {0.004938f, 0.012959f, 0.006374f, 0.042042f, 4.696581f, -0.833072f, 0.670563f, 0.604615f},
    };

    const float TH2[40][RANK] = {
        {0.311439f, 0.008830f, 0.011642f, 0.025313f, -0.686463f, 2.654326f, -1.032927f, -1.431043f},
        {0.310521f, 0.018784f, -0.055814f, -0.124842f, -0.668828f, 2.642613f, -1.040923f, -1.394653f},
        {0.307584f, 0.029774f, -0.122206f, -0.270512f, -0.650550f, 2.614824f, -1.041050f, -1.354664f},
        {0.302648f, 0.041770f, -0.186843f, -0.409489f, -0.631713f, 2.570587f, -1.032739f, -1.311579f},
        {0.295745f, 0.054720f, -0.249035f, -0.539667f, -0.612363f, 2.509354f, -1.015218f, -1.266018f},
        {0.286920f, 0.068547f, -0.308087f, -0.659052f, -0.592509f, 2.430512f, -0.987476f, -1.218788f},
        {0.276233f, 0.083149f, -0.363316f, -0.765853f, -0.572113f, 2.333211f, -0.948270f, -1.170807f},
        {0.263755f, 0.098420f, -0.414011f, -0.858344f, -0.551037f, 2.216369f, -0.896014f, -1.123170f},
        {0.249575f, 0.114254f, -0.459439f, -0.934971f, -0.529044f, 2.078589f, -0.828734f, -1.077136f},
        {0.233790f, 0.130510f, -0.498853f, -0.994434f, -0.505787f, 1.918060f, -0.744019f, -1.034125f},
        {0.216518f, 0.147004f, -0.531472f, -1.035769f, -0.480774f, 1.732521f, -0.638928f, -0.995751f},
        {0.197892f, 0.163534f, -0.556483f, -1.058390f, -0.453367f, 1.519100f, -0.509937f, -0.963761f},
        {0.178068f, 0.179843f, -0.573053f, -1.062249f, -0.422764f, 1.274317f, -0.352938f, -0.939991f},
        {0.157228f, 0.195623f, -0.580330f, -1.047874f, -0.388084f, 0.994090f, -0.163413f, -0.926309f},
        {0.135599f, 0.210494f, -0.577486f, -1.016506f, -0.348417f, 0.674193f, 0.063118f, -0.924418f},
        {0.113479f, 0.224032f, -0.563747f, -0.970090f, -0.303215f, 0.311560f, 0.329601f, -0.935341f},
        {0.091288f, 0.235807f, -0.538549f, -0.911246f, -0.253149f, -0.092094f, 0.633635f, -0.958266f},
        {0.069688f, 0.245460f, -0.501804f, -0.843594f, -0.202047f, -0.521983f, 0.959068f, -0.988132f},
        {0.049739f, 0.252880f, -0.454453f, -0.772152f, -0.160220f, -0.936285f, 1.261794f, -1.011690f},
        {0.032888f, 0.258302f, -0.398992f, -0.702936f, -0.145242f, -1.262219f, 1.466306f, -1.006895f},
        {0.020344f, 0.262212f, -0.339639f, -0.639171f, -0.172758f, -1.433247f, 1.504221f, -0.953962f},
        {0.012181f, 0.264945f, -0.280996f, -0.577330f, -0.241973f, -1.448768f, 1.375578f, -0.852737f},
        {0.007346f, 0.266366f, -0.226461f, -0.510709f, -0.336194f, -1.373844f, 1.148613f, -0.723042f},
        {0.004554f, 0.266012f, -0.177809f, -0.436222f, -0.437751f, -1.278941f, 0.898114f, -0.587592f},
        {0.002907f, 0.263413f, -0.135725f, -0.356147f, -0.536855f, -1.203116f, 0.667133f, -0.460644f},
        {0.001905f, 0.258259f, -0.100242f, -0.275371f, -0.630348f, -1.158520f, 0.470788f, -0.348327f},
        {0.001281f, 0.250450f, -0.070999f, -0.198567f, -0.718017f, -1.144139f, 0.310385f, -0.252337f},
        {0.000887f, 0.240038f, -0.047453f, -0.129297f, -0.800639f, -1.154546f, 0.182157f, -0.172451f},
        {0.000636f, 0.227195f, -0.028957f, -0.069801f, -0.879055f, -1.183393f, 0.081031f, -0.107654f},
        {0.000478f, 0.212174f, -0.014848f, -0.021182f, -0.953908f, -1.224671f, 0.002003f, -0.056644f},
        {0.000378f, 0.195266f, -0.004484f, 0.016325f, -1.025603f, -1.273219f, -0.059321f, -0.018095f},
        {0.000318f, 0.176796f, 0.002756f, 0.043224f, -1.094305f, -1.324659f, -0.106680f, 0.009294f},
        {0.000282f, 0.157094f, 0.007431f, 0.060468f, -1.159985f, -1.375474f, -0.143099f, 0.026700f},
        {0.000262f, 0.136483f, 0.010029f, 0.069267f, -1.222457f, -1.422805f, -0.170990f, 0.035161f},
        {0.000251f, 0.115280f, 0.011000f, 0.071026f, -1.281408f, -1.464321f, -0.192256f, 0.035590f},
        {0.000245f, 0.093815f, 0.010754f, 0.067223f, -1.336450f, -1.498197f, -0.208344f, 0.028754f},
        {0.000241f, 0.072370f, 0.009666f, 0.059415f, -1.387217f, -1.523041f, -0.220370f, 0.015291f},
        {0.000237f, 0.051228f, 0.008081f, 0.049178f, -1.433249f, -1.537803f, -0.229136f, -0.004242f},
        {0.000229f, 0.030645f, 0.006319f, 0.038086f, -1.474106f, -1.541748f, -0.235190f, -0.029397f},
        {0.000217f, 0.010875f, 0.004675f, 0.027667f, -1.509299f, -1.534419f, -0.238825f, -0.059776f},
    };

    const float DPHI[10][RANK] = {
        {0.312649f, 0.842486f, -4.569715f, -20.305905f, 26.418876f, -188.664568f, 303.510821f, -2892.477925f},
        {0.312697f, 0.791458f, -4.277458f, -19.113892f, 26.530355f, -188.314056f, 303.704383f, -2876.943132f},
        {0.312816f, 0.654904f, -3.449540f, -15.798332f, 26.770571f, -186.969825f, 303.687606f, -2837.019068f},
        {0.312935f, 0.469743f, -2.215486f, -10.921127f, 26.976206f, -184.345022f, 302.837055f, -2785.845437f},
        {0.312989f, 0.276130f, -0.751459f, -5.199013f, 27.014305f, -180.568033f, 301.158293f, -2735.869685f},
        {0.312941f, 0.107885f, 0.752425f, 0.633683f, 26.818574f, -176.156874f, 298.913574f, -2697.025897f},
        {0.312795f, -0.014177f, 2.118861f, 5.910914f, 26.401774f, -171.785203f, 296.313439f, -2674.684899f},
        {0.312598f, -0.085011f, 3.201148f, 10.088700f, 25.862859f, -168.157767f, 293.703636f, -2668.847401f},
        {0.312424f, -0.114358f, 3.893179f, 12.767204f, 25.380217f, -165.772717f, 291.523946f, -2673.411932f},
        {0.312354f, -0.120345f, 4.131117f, 13.687858f, 25.175603f, -164.939769f, 290.565746f, -2677.528291f},
    };

}
